<?xml version="1.0"?>
<opencv_storage>
<cascade>
  <stageType>BOOST</stageType>
  <featureType>HAAR</featureType>
  <height>20</height>
  <width>70</width>
  <stageParams>
    <boostType>GAB</boostType>
    <minHitRate>9.9500000476837158e-01</minHitRate>
    <maxFalseAlarm>4.0000000596046448e-01</maxFalseAlarm>
    <weightTrimRate>9.4999999999999996e-01</weightTrimRate>
    <maxDepth>1</maxDepth>
    <maxWeakCount>100</maxWeakCount></stageParams>
  <featureParams>
    <maxCatCount>0</maxCatCount>
    <featSize>1</featSize>
    <mode>ALL</mode></featureParams>
  <stageNum>5</stageNum>
  <stages>
    <!-- stage 0 -->
    <_>
      <maxWeakCount>1</maxWeakCount>
      <stageThreshold>1.</stageThreshold>
      <weakClassifiers>
        <_>
          <internalNodes>
            0 -1 0 -1.3809199444949627e-02</internalNodes>
          <leafValues>
            1. -1.</leafValues></_></weakClassifiers></_>
    <!-- stage 1 -->
    <_>
      <maxWeakCount>1</maxWeakCount>
      <stageThreshold>9.4444441795349121e-01</stageThreshold>
      <weakClassifiers>
        <_>
          <internalNodes>
            0 -1 1 -9.5118656754493713e-02</internalNodes>
          <leafValues>
            9.4444441795349121e-01 -1.</leafValues></_></weakClassifiers></_>
    <!-- stage 2 -->
    <_>
      <maxWeakCount>2</maxWeakCount>
      <stageThreshold>-7.1903198957443237e-02</stageThreshold>
      <weakClassifiers>
        <_>
          <internalNodes>
            0 -1 5 -4.0659576654434204e-02</internalNodes>
          <leafValues>
            7.8947371244430542e-01 -9.2857140302658081e-01</leafValues></_>
        <_>
          <internalNodes>
            0 -1 3 -3.1951591372489929e-02</internalNodes>
          <leafValues>
            8.6676061153411865e-01 -8.6137688159942627e-01</leafValues></_></weakClassifiers></_>
    <!-- stage 3 -->
    <_>
      <maxWeakCount>2</maxWeakCount>
      <stageThreshold>-1.8436104059219360e-01</stageThreshold>
      <weakClassifiers>
        <_>
          <internalNodes>
            0 -1 4 -4.0729574859142303e-02</internalNodes>
          <leafValues>
            -9.2592591047286987e-01 7.4358975887298584e-01</leafValues></_>
        <_>
          <internalNodes>
            0 -1 7 2.4479214102029800e-02</internalNodes>
          <leafValues>
            -1. 7.4156486988067627e-01</leafValues></_></weakClassifiers></_>
    <!-- stage 4 -->
    <_>
      <maxWeakCount>2</maxWeakCount>
      <stageThreshold>5.8824691921472549e-02</stageThreshold>
      <weakClassifiers>
        <_>
          <internalNodes>
            0 -1 2 4.5527279144152999e-04</internalNodes>
          <leafValues>
            1. -9.3750000000000000e-01</leafValues></_>
        <_>
          <internalNodes>
            0 -1 6 -9.8162367939949036e-03</internalNodes>
          <leafValues>
            -9.4117528200149536e-01 1.</leafValues></_></weakClassifiers></_></stages>
  <features>
    <_>
      <rects>
        <_>
          0 0 10 13 -1.</_>
        <_>
          5 0 5 13 2.</_></rects>
      <tilted>0</tilted></_>
    <_>
      <rects>
        <_>
          2 3 54 16 -1.</_>
        <_>
          2 7 54 8 2.</_></rects>
      <tilted>0</tilted></_>
    <_>
      <rects>
        <_>
          2 9 2 8 -1.</_>
        <_>
          2 13 2 4 2.</_></rects>
      <tilted>0</tilted></_>
    <_>
      <rects>
        <_>
          4 3 39 8 -1.</_>
        <_>
          4 5 39 4 2.</_></rects>
      <tilted>0</tilted></_>
    <_>
      <rects>
        <_>
          8 3 32 16 -1.</_>
        <_>
          24 3 16 16 2.</_></rects>
      <tilted>0</tilted></_>
    <_>
      <rects>
        <_>
          10 3 60 15 -1.</_>
        <_>
          25 3 30 15 2.</_></rects>
      <tilted>0</tilted></_>
    <_>
      <rects>
        <_>
          17 15 48 3 -1.</_>
        <_>
          29 15 24 3 2.</_></rects>
      <tilted>0</tilted></_>
    <_>
      <rects>
        <_>
          44 6 26 7 -1.</_>
        <_>
          57 6 13 7 2.</_></rects>
      <tilted>0</tilted></_></features></cascade>
</opencv_storage>
